tree
version=v4
num_class=1
num_tree_per_iteration=1
label_index=0
max_feature_idx=10
objective=lambdarank
feature_names=cosine_sim bm25_norm industry_score location_score size_score recency structured_score keyword_overlap is_public has_employees has_revenue
feature_infos=[0.67894506454467773:0.86795127391815186] [0:1] [0:1] [0:1] [0:1] [0:1] [0.34807151556015015:0.87235856056213379] [0:1] [0:1] [0:1] [0:1]
tree_sizes=3933 6522 5318

Tree=0
num_leaves=38
num_cat=0
split_feature=6 7 3 1 0 0 3 0 7 7 1 4 1 1 0 0 6 7 1 1 6 1 1 1 0 0 5 0 1 1 1 1 6 5 1 6 1
split_gain=40.9312 7.26496 4.64572 2.09302 1.80962 1.3274 0.903103 0.897589 0.880778 0.820266 0.728661 0.603014 0.594447 2.75227 1.08289 0.578802 0.495317 0.440077 0.420201 0.354253 0.231275 0.225867 0.214214 0.188514 0.173765 0.150735 0.157378 0.134814 0.113081 0.0439972 0.0389473 0.0376354 0.0345818 0.0149478 0.00658511 0.00688198 0.0010517
threshold=0.65999880433082592 0.35416667163372045 0.67500001192092907 0.46876880526542669 0.75829941034317028 0.74665760993957531 0.92500001192092907 0.80615782737731945 0.84523808956146251 0.47222222387790685 0.71307238936424266 0.78847491741180431 0.73482152819633495 0.659053534269333 0.78425621986389171 0.79665774106979381 0.65815597772598278 0.47222222387790685 0.28028716146945959 0.46876880526542669 0.63831961154937755 0.30996769666671758 0.32387463748455053 0.57585689425468456 0.81410118937492382 0.78625509142875682 0.89919352531433117 0.8050174117088319 0.32939364016056066 0.10423537343740465 0.46187667548656469 0.38141430914402014 0.64552608132362377 0.9556451439857484 0.094818241894245162 0.47810776531696325 0.50065606832504284
decision_type=2 2 2 2 2 2 2 2 2 2 2 2 2 2 2 2 2 2 2 2 2 2 2 2 2 2 2 2 2 2 2 2 2 2 2 2 2
left_child=1 7 4 24 22 -2 10 20 12 16 17 21 13 14 -7 -10 18 -5 34 -13 23 -11 -3 -1 30 31 27 -27 29 -9 -4 -23 -8 -28 -6 -36 -30
right_child=5 2 3 6 9 8 32 28 15 11 -12 19 -14 -15 -16 -17 -18 -19 -20 -21 -22 25 -24 -25 -26 26 33 -29 36 -31 -32 -33 -34 -35 35 -37 -38
leaf_value=-0.080462373448794478 -0.041353036788146648 0 -0.086483984320417762 -0.011027902513406294 0.0082979172977523975 -0.016696931698419005 -0.064323403377662944 0 0.052987982126747692 -0.049965833786091041 -0.048270785409013722 0.06514232273029695 0.081416702989270728 -0.055685298818857115 0.073983413972783768 -0.023908800999526247 -0.014148016169835756 0.052684339043487627 0.073334076932285192 -0.0068355514556889116 0 0 -0.066074127814901115 0 0 0.047133564613282136 -0.014767958872981402 0 0.013187583594480299 -0.033716488406813933 0 -0.037435648773567039 0 0 0 -0.0085482274520432139 0
leaf_weight=9.3218501764349639 0.15604879753664036 0.08693841495551069 1.9449067036621284 0.1781497662886975 0.13909181393683079 0.23407743388088231 0.39090670365840186 0.15063182031735856 0.3279900290071972 0.21773445850703843 0.19438952160999179 0.41706716315820813 8.8708469611592573 0.420324329737923 3.0150500431191176 0.39903258488629945 0.074719317257404216 0.8169162105768919 1.7580552390427326 0.061005622148513794 0.10610410897061306 0.045261979103088379 0.39815481862751767 0.084389733616263451 0.0665732817724346 0.2860309065436013 0.10717503755586222 0.069980326748918742 0.11617747321724892 0.22527028573676944 0.064210336655378231 0.13975314545677975 0.078567263670265675 0.039606628473848104 0.027497466653585434 0.13545128173427656 0.087462782859802246
leaf_count=1123 4 11 179 13 11 20 20 20 4 30 7 29 40 19 91 7 1 27 96 5 6 3 70 5 3 20 9 12 7 28 3 37 5 16 6 32 4
internal_value=0.00194431 -0.0474335 -0.0100164 -0.0499317 0.0263089 0.0677675 -0.00412121 -0.0752534 0.0697248 0.0397768 0.0163087 0.00500238 0.0728849 0.0493201 0.0656541 0.00694909 0.0588451 0.0367464 0.0643396 0.0477144 -0.0789728 -0.0150772 -0.0529319 -0.0797944 -0.0823739 0 0.0149613 0.0337868 -0.00420925 -0.0233636 -0.0848858 -0.0291334 -0.0584368 -0.00562698 0 0 0.0107312
internal_weight=31.2534 17.83 7.73814 3.73462 4.00352 13.4234 1.65893 10.0919 13.2673 3.51843 1.18946 1.38362 12.5403 3.66945 3.24913 0.727023 2.13482 0.995066 2.0601 0.478073 9.51234 0.905542 0.485093 9.40624 2.07569 0.687808 0.502793 0.356011 0.579542 0.375902 2.00912 0.185015 0.469474 0.146782 0.302041 0.162949 0.20364
internal_count=2023 1838 645 257 388 185 72 1193 181 307 47 161 170 130 111 11 146 40 145 34 1134 127 81 1128 185 97 57 32 59 48 182 40 25 25 49 38 11
is_linear=0
shrinkage=0.05


Tree=1
num_leaves=63
num_cat=0
split_feature=6 6 3 6 0 7 0 7 0 7 3 6 6 7 5 5 5 7 0 0 0 3 5 6 5 9 5 6 5 6 5 5 5 0 0 8 5 5 6 0 0 0 5 0 0 4 9 0 6 6 7 7 0 6 7 0 6 6 6 0 0 0
split_gain=27.3457 10.3352 7.43681 6.44866 4.12882 3.72325 3.45641 3.30459 2.93729 2.92346 2.50952 2.43766 6.0749 3.79223 3.59271 2.4415 1.99506 1.6624 1.6756 1.20584 1.18529 1.15872 1.08967 1.40846 0.986532 0.834966 0.946578 0.801395 0.655586 1.46083 0.534819 0.530828 0.517788 0.581717 0.460369 0.363728 0.328625 0.697181 0.55729 0.277649 0.257282 0.244996 0.243132 0.30731 0.203853 0.178299 0.161289 0.155741 0.150348 0.149422 0.143757 0.12308 0.119091 0.0970146 0.0864403 0.0689217 0.0468548 0.0666454 0.0409309 0.0209052 0.0207515 0.00526793
threshold=0.55285790562629711 0.73712155222892772 0.67500001192092907 0.70616987347602855 0.74842756986618053 0.64583334326744091 0.77669119834899913 0.35416667163372045 0.81809836626052868 0.43650794029235845 0.92500001192092907 0.63506078720092785 0.56593406200408947 0.64583334326744091 0.9556451439857484 0.89919352531433117 0.54435485601425182 0.47222222387790685 0.80362847447395336 0.80615782737731945 0.79090106487274181 0.67500001192092907 0.42741934955120092 0.69816759228706371 0.9395161271095277 1.0000000180025095e-35 0.99596774578094494 0.65530312061309826 0.79435485601425182 0.6690039634704591 0.54435485601425182 0.9556451439857484 0.83467739820480358 0.81964567303657543 0.77751672267913829 1.0000000180025095e-35 0.5645161271095277 0.50403225421905529 0.57586607336997997 0.75931102037429821 0.81015807390213024 0.75568190217018139 0.89919352531433117 0.79118600487709057 0.79418528079986583 0.78847491741180431 1.0000000180025095e-35 0.80778884887695324 0.68458691239357006 0.55586218833923351 0.21111111342906955 0.5634920895099641 0.79171445965766918 0.56527781486511242 0.35416667163372045 0.80232650041580211 0.61516341567039501 0.61644163727760326 0.59252235293388378 0.80117139220237743 0.78991466760635387 0.75635376572608959
decision_type=2 2 2 2 2 2 2 2 2 2 2 2 2 2 2 2 2 2 2 2 2 2 2 2 2 2 2 2 2 2 2 2 2 2 2 2 2 2 2 2 2 2 2 2 2 2 2 2 2 2 2 2 2 2 2 2 2 2 2 2 2 2
left_child=7 2 3 4 -2 8 -4 19 16 21 22 12 15 28 27 34 -3 18 39 -1 35 32 -8 25 30 50 36 -15 -13 31 45 -30 46 -34 49 -11 37 -27 -38 41 -25 -14 43 -40 -45 58 -9 -21 -31 -6 -24 -12 -22 -51 -20 -54 -41 -58 -19 -32 -44 -43
right_child=1 5 6 -5 11 -7 10 9 -10 20 51 13 17 14 -16 -17 -18 24 54 47 52 -23 23 40 -26 26 -28 -29 29 48 59 -33 33 -35 -36 -37 38 -39 42 56 -42 61 60 44 -46 -47 -48 -49 -50 53 -52 -53 55 -55 -56 -57 57 -59 -60 -61 -62 -63
leaf_value=-0.076919650517946581 -0.07597465160205609 -0.0052487704103672279 -0.078310946396865436 -0.0686493576003184 0.039665485514882637 0.087261247875099368 0.072164839907713246 0 -0.036903754367720032 -0.085423626063516098 -0.070375950874497328 0.084666725529832121 -0.046570362812980388 0.014903665346611361 0.064345917893086801 -0.04323097492846939 0.076671161301378674 0 0 0.029193113201575693 0.032282999505960704 -0.055862941889902901 0 0.00087985666676900171 0.058933481194052686 -0.019402956403528782 -0.065599235902780759 -0.078170873558970608 0 -0.052675231558348905 -0.058989238542448696 0.075010941344343204 -0.047906955439433054 0.045538596678586701 0.088724956076242797 0 -0.057723605051190667 0.069204972952315938 0.0084322406287036245 -0.064978762980038768 0.04994625628601719 0.011010136249934584 0 0 -0.053149844328189366 0.034261473997444253 0.056429899871200222 -0.017880164807951692 0 -0.030577977245480777 -0.062623837549622849 -0.028340936952925902 -0.026687637865920846 0.011199058470944849 0.053616692120613096 0 0 -0.027897271415491493 -0.021130717461069995 0 0.037128749832699294 0
leaf_weight=9.4537007429171318 0.69442410650664044 0.92605981975793694 2.2568249413743606 1.5312116781715293 0.19185643922537821 6.7875668921042234 0.45837506279349138 0.26999050681479198 1.1981686204671858 1.5061915976693856 1.1595720015466215 5.2156150972004962 0.1988385625882082 0.15193573886062972 0.96720369113609184 0.32838999608065922 2.1631581261754036 0.12422980298288144 0.27426281524822105 0.16609711199998933 0.17686212062835682 0.29401083476841439 0.14045307785272587 0.62329061329364766 0.82079149130731821 0.20047237211838442 0.42944149067625392 0.96550947532523423 0.38994240772444788 0.21796261519193638 0.29161991586443037 1.4218927717301992 0.28585147450212378 0.17504382133483887 2.8839120103511959 0.10176127485465247 0.28800610359758172 0.43543477123603225 1.2757102688774469 1.9697572714649143 1.1380369216203687 0.14951989986002445 0.24110164865851391 0.13069112319499243 0.31911068502813578 0.36951489630155265 1.2305107177235186 0.40852323267608881 0.1675752317532897 0.13261500559747219 0.79158433666452765 1.1174257434904573 0.1626376798376441 0.099638516549021006 0.24606941128149629 0.077657478745095432 0.10786324646323908 0.12102000042796135 0.14978877105750144 0.047674749046564102 0.44911532080732286 0.24030696926638484
leaf_count=884 65 4 132 15 4 22 3 15 5 114 18 27 16 9 8 42 8 6 12 7 1 20 2 8 15 12 22 38 10 7 30 15 16 1 16 5 16 3 16 93 10 3 2 4 10 10 27 31 4 9 42 22 21 3 3 6 4 12 17 3 10 8
internal_value=0.00262632 0.02264 0.00794844 0.0260733 0.0343142 0.0640937 -0.0239556 -0.056911 0.0251234 -0.0179956 -0.00938213 0.0391757 0.0189386 0.0569023 -0.000396787 0.0676925 0.0511515 -0.0154215 -0.0366436 -0.0726864 -0.0607921 0.0192577 0.00511524 0 0.0207514 -0.014966 -0.00257243 -0.0612241 0.073472 0.0421955 -0.00901585 0.0615214 0.0351075 -0.0017113 0.0811165 -0.0795614 0.00575002 0.0356359 -0.000515991 -0.0525914 0.0362492 -0.00874846 0.00634027 -0.00145401 -0.035021 0.0124147 0.0489411 0 -0.0322942 0.0127826 -0.0551343 -0.0539111 0.00328185 0 0.0354316 -0.00658459 -0.0612634 -0.00405098 -0.00496104 -0.0546179 0.0298712 0.00590465
internal_weight=57.3094 43.0005 31.9256 20.4709 18.9397 11.075 11.4546 14.3088 4.28739 4.28052 9.19782 18.2453 8.74767 9.49764 2.08465 3.63641 3.08922 5.11126 3.30764 10.0283 2.02511 2.25541 6.92082 6.46245 1.80362 4.70112 3.76908 1.11745 7.41299 2.19737 0.982828 1.81184 1.9614 0.460895 3.30802 1.60795 3.33964 0.635907 2.70374 2.78731 1.76133 0.588665 2.41573 1.72551 0.449802 0.643533 1.5005 0.57462 0.385538 0.42411 0.932037 2.277 0.417157 0.232254 0.520332 0.240295 2.19864 0.228883 0.274019 0.339295 0.690217 0.389827
internal_count=2023 875 836 504 489 39 332 1148 17 226 200 424 306 118 55 74 12 232 151 922 147 79 160 157 81 139 95 47 63 36 66 25 59 17 32 119 73 15 58 136 18 27 42 30 14 33 42 38 11 16 44 40 28 12 15 27 109 16 23 33 12 11
is_linear=0
shrinkage=0.05


Tree=2
num_leaves=51
num_cat=0
split_feature=1 7 8 3 0 0 1 0 5 1 1 7 0 7 0 4 0 1 1 5 0 7 5 5 5 0 7 7 7 3 5 5 0 0 0 0 1 0 0 1 1 0 0 0 0 0 5 0 0 0
split_gain=29.6771 13.3021 8.27428 5.91367 4.43869 3.75036 6.39721 2.34068 1.86293 2.19167 2.10594 1.62893 1.29548 1.30151 1.18016 1.16144 0.765888 0.625817 0.524441 0.431075 0.37565 0.360578 0.284152 0.345392 0.265737 0.410068 0.227551 0.295421 0.479721 0.171752 0.177239 0.654782 0.136009 0.168764 0.125324 3.22762 0.11831 0.114894 0.150976 0.102205 0.326539 0.0674356 0.0371333 0.0268088 0.0300538 0.0443162 0.020785 0.0199391 0.0398976 0.000937303
threshold=0.48842647671699529 0.35416667163372045 1.0000000180025095e-35 1.0000000180025095e-35 0.80615782737731945 0.78922241926193248 0.95700284838676464 0.81015807390213024 0.3669354915618897 0.094818241894245162 0.46492621302604681 0.52777779102325451 0.77669119834899913 0.41428571939468389 0.8133908510208131 0.78847491741180431 0.78368273377418529 0.30753536522388464 0.76346352696418773 0.80241936445236217 0.80232650041580211 0.64583334326744091 0.77822580933570873 0.55241936445236217 0.29435484111309057 0.79090106487274181 0.84523808956146251 0.41428571939468389 0.35416667163372045 0.92500001192092907 0.50403225421905529 0.068548385053873076 0.78277987241745006 0.7864898443222047 0.75481152534484874 0.75601708889007579 0.46187667548656469 0.79090106487274181 0.79204523563385021 0.1782263517379761 0.15796163678169253 0.76361966133117687 0.76270702481269848 0.82291519641876232 0.81152856349945079 0.80778884887695324 0.6895161271095277 0.82536688446998607 0.80778884887695324 0.79171445965766918
decision_type=2 2 2 2 2 2 2 2 2 2 2 2 2 2 2 2 2 2 2 2 2 2 2 2 2 2 2 2 2 2 2 2 2 2 2 2 2 2 2 2 2 2 2 2 2 2 2 2 2 2
left_child=1 4 3 -3 34 6 12 8 24 -10 39 15 26 -14 -9 22 -12 -16 29 47 41 32 23 -4 25 -5 27 28 -2 30 31 -7 46 -34 -1 -36 -19 -37 49 40 -11 -13 -30 44 45 -21 -15 48 -6 -39
right_child=5 2 11 7 19 18 -8 14 9 10 16 20 13 21 17 -17 -18 36 -20 43 -22 -23 -24 -25 -26 -27 -28 -29 42 -31 -32 -33 33 -35 35 37 -38 38 -40 -41 -42 -43 -44 -45 -46 -47 -48 -49 -50 -51
leaf_value=-0.083779428108945342 -0.056242744327197218 0.076092564565279658 0.028532245272509207 -0.045663670576957097 0 0.073303675602936824 0.07482571522497404 0.062197226778784337 0.040059790540181675 -0.056019739532964567 -0.031103104887034539 0 0.064457670700437925 0 0.032899419056449421 0.085946060276835448 0.041116722416615216 -0.046723214123294998 0.076028028863777145 0.018871878972742652 0.024234260484671921 -0.040561819092382899 0.05097045036644289 -0.02370359242458854 0.046820575104842416 0.034409183988084999 0 -0.068397469311174991 0 0.0077655789721953463 0.061015786396950912 0.0067095544274154255 0.03533171798548225 -0.00014805983246877444 0.034352105919349916 -0.075040141943395727 0 -0.0033970334363478075 -0.050340482961270729 -0.074558457414827431 0.00066092020078523269 -0.044499712699403837 0.019844935051648908 0 0.046925261056515497 0 -0.020980380494771023 0 -0.026093219907081851 0
leaf_weight=3.8707120122853658 0.31918850541115107 1.3369641806930328 0.6361841307952989 0.21144132548942973 0.14668592903762956 0.55841577053069857 3.0716847479343414 0.74222675152122874 0.48398450855165709 0.29727389430627216 0.77354664169251897 0.13224860280752171 0.62084280233830247 0.098779828287660854 0.33498843573033787 3.0019160155206919 0.53270903835073113 0.62342409696429968 7.9070005556568503 0.23282008338719584 0.35963466577231884 0.66635158425196994 0.66239063069224347 0.39788225758820772 0.40576273575425148 0.21736750565469265 0.21892730146646489 1.0983144477941094 0.15956548880785704 0.52256992086768139 4.4217822970822453 1.365722993388772 0.41338981874287128 0.26843127515166998 0.69281398644670744 6.7746021258644742 0.22723969630897045 0.10305803059600283 1.7001286853337658 5.223287486936897 0.27456973167136312 0.32953493483364582 0.2908198032528162 0.24768907763063908 0.52834204374812543 0.14608268020674586 0.29329737927764654 0.10587024781852961 0.34049218031577766 0.17139960452914238
leaf_count=337 19 4 10 15 5 1 7 9 10 18 23 7 6 3 6 9 11 14 32 8 5 14 6 10 4 2 2 78 8 6 54 42 8 8 17 615 7 12 139 334 11 14 6 4 14 7 11 4 20 7
internal_value=0.00599279 -0.0245337 0.00526139 -0.0182591 -0.05871 0.050306 0.0202132 -0.0315397 -0.0429916 -0.0509623 -0.0583303 0.0553803 -0.0172182 0.00639647 0.0156636 0.0666185 0 -0.0121496 0.0650459 0.0131964 -0.0037277 -0.0139772 0.0267542 0.00370647 0.0218056 0 -0.0452938 -0.0506837 -0.0146948 0.0507762 0.0533669 0.0311731 0.000309277 0.0167358 -0.0685522 -0.0609733 -0.0367439 -0.0693897 -0.0449107 -0.0710593 -0.0253148 -0.034842 0.0105346 0.0315502 0.0361488 0.00402087 -0.0156913 -0.0147274 -0.0184634 0
internal_weight=54.5604 32.2653 17.2046 11.6848 15.0607 22.2951 7.51959 10.3478 8.41994 7.58537 7.10139 5.51979 4.44791 2.36109 1.92788 4.69837 1.30626 1.18565 14.7755 1.74798 0.821418 1.74025 1.69646 1.03407 0.834572 0.428809 2.08682 1.86789 0.769574 6.86849 6.34592 1.92414 1.0739 0.681821 13.3127 9.442 0.850664 8.74919 1.97459 5.79513 0.571844 0.461784 0.450385 1.15493 0.907245 0.378903 0.392077 0.593048 0.487178 0.274458
internal_count=2023 1718 529 468 1189 305 170 464 428 407 397 61 163 50 36 35 34 27 135 62 26 44 26 20 21 17 113 111 33 103 97 43 30 16 1127 790 21 773 158 363 29 21 14 33 29 15 14 29 25 19
is_linear=0
shrinkage=0.05


end of trees

feature_importances:
cosine_sim=49
bm25_norm=24
recency=23
structured_score=20
keyword_overlap=19
location_score=7
size_score=3
is_public=2
has_employees=2

parameters:
[boosting: gbdt]
[objective: lambdarank]
[metric: ndcg]
[tree_learner: serial]
[device_type: cpu]
[data_sample_strategy: bagging]
[data: ]
[valid: ]
[num_iterations: 500]
[learning_rate: 0.05]
[num_leaves: 63]
[num_threads: 0]
[seed: 42]
[deterministic: 0]
[force_col_wise: 0]
[force_row_wise: 0]
[histogram_pool_size: -1]
[max_depth: -1]
[min_data_in_leaf: 5]
[min_sum_hessian_in_leaf: 0.001]
[bagging_fraction: 0.8]
[pos_bagging_fraction: 1]
[neg_bagging_fraction: 1]
[bagging_freq: 5]
[bagging_seed: 400]
[bagging_by_query: 0]
[feature_fraction: 0.8]
[feature_fraction_bynode: 1]
[feature_fraction_seed: 30056]
[extra_trees: 0]
[extra_seed: 12879]
[early_stopping_round: 0]
[early_stopping_min_delta: 0]
[first_metric_only: 0]
[max_delta_step: 0]
[lambda_l1: 0.1]
[lambda_l2: 0.1]
[linear_lambda: 0]
[min_gain_to_split: 0]
[drop_rate: 0.1]
[max_drop: 50]
[skip_drop: 0.5]
[xgboost_dart_mode: 0]
[uniform_drop: 0]
[drop_seed: 17869]
[top_rate: 0.2]
[other_rate: 0.1]
[min_data_per_group: 100]
[max_cat_threshold: 32]
[cat_l2: 10]
[cat_smooth: 10]
[max_cat_to_onehot: 4]
[top_k: 20]
[monotone_constraints: ]
[monotone_constraints_method: basic]
[monotone_penalty: 0]
[feature_contri: ]
[forcedsplits_filename: ]
[refit_decay_rate: 0.9]
[cegb_tradeoff: 1]
[cegb_penalty_split: 0]
[cegb_penalty_feature_lazy: ]
[cegb_penalty_feature_coupled: ]
[path_smooth: 0]
[interaction_constraints: ]
[verbosity: -1]
[saved_feature_importance_type: 0]
[use_quantized_grad: 0]
[num_grad_quant_bins: 4]
[quant_train_renew_leaf: 0]
[stochastic_rounding: 1]
[linear_tree: 0]
[max_bin: 255]
[max_bin_by_feature: ]
[min_data_in_bin: 3]
[bin_construct_sample_cnt: 200000]
[data_random_seed: 175]
[is_enable_sparse: 1]
[enable_bundle: 1]
[use_missing: 1]
[zero_as_missing: 0]
[feature_pre_filter: 1]
[pre_partition: 0]
[two_round: 0]
[header: 0]
[label_column: ]
[weight_column: ]
[group_column: ]
[ignore_column: ]
[categorical_feature: ]
[forcedbins_filename: ]
[precise_float_parser: 0]
[parser_config_file: ]
[objective_seed: 16083]
[num_class: 1]
[is_unbalance: 0]
[scale_pos_weight: 1]
[sigmoid: 1]
[boost_from_average: 1]
[reg_sqrt: 0]
[alpha: 0.9]
[fair_c: 1]
[poisson_max_delta_step: 0.7]
[tweedie_variance_power: 1.5]
[lambdarank_truncation_level: 30]
[lambdarank_norm: 1]
[label_gain: 0,1,3,7]
[lambdarank_position_bias_regularization: 0]
[eval_at: 1,5,10]
[multi_error_top_k: 1]
[auc_mu_weights: ]
[num_machines: 1]
[local_listen_port: 12400]
[time_out: 120]
[machine_list_filename: ]
[machines: ]
[gpu_platform_id: -1]
[gpu_device_id: -1]
[gpu_use_dp: 0]
[num_gpu: 1]

end of parameters

pandas_categorical:null
